Epoch,Error,w1,w2,w3
0,0,-0.0607865350611041,0.04680412795888067,0.6744648291229733
0,-1.7071299846021553,0.037624437401946875,0.10024192816764432,0.5207076375099777
1,-1.5852446312051975,0.12598311256750588,0.15540478365303878,0.40156317753841586
2,-1.4575694556136498,0.20135954023657401,0.20583066407764947,0.3012959045630465
3,-1.343458283326263,0.26510081130092156,0.2508030148646584,0.21540451716916736
4,-1.2442857025311718,0.3189695616907874,0.29060625939777707,0.1415670384052012
5,-1.1585899799845483,0.3645383168111301,0.3256932793718443,0.07805040782011605
6,-1.0846445771775237,0.40313239014055535,0.3565310159640092,0.023407678459930664
7,-1.020872310170232,0.43585820092515676,0.38356681523464164,-0.02359947819384485
8,-0.9685085665436755,0.46464845468187177,0.4084147646895723,-0.06676493268017908
9,-0.9242913599802343,0.4911455147814747,0.432487228312645,-0.10849101509016645
10,-0.8830762102706253,0.5158473672743459,0.45595221028917576,-0.14841481961764674
11,-0.8438342276654165,0.5389982833941311,0.47876878899356456,-0.186533917920779
12,-0.8063265829433597,0.5607677725829734,0.5008798595061751,-0.22291294867782052
13,-0.7704636527290942,0.5812905173644095,0.5222436774339425,-0.2576269253441708
14,-0.7361825138888969,0.6006782798167322,0.5428355276347402,-0.2907503102292518
15,-0.7034242800175992,0.6190254824979422,0.5626446120313107,-0.32235495053277263
16,-0.6721304833936428,0.6364128573200436,0.5816707860907542,-0.3525097400895264
17,-0.6422429456737564,0.6529101671645363,0.5999218675618485,-0.38128062386113604
18,-0.6137041745819545,0.6685783159104447,0.617411524030357,-0.4087306748571924
19,-0.5864577477903685,0.6834710026298034,0.6341576367048181,-0.4349201888926951
20,-0.5604486060940328,0.6976360239438243,0.6501810396762396,-0.4599067848388705
21,-0.5356232612184726,0.7111163022670272,0.6655045521166776,-0.4837455066273993
22,-0.5119299351448068,0.7239506999110327,0.6801522383306516,-0.5064889252706456
23,-0.48931864653233315,0.7361746657025022,0.6941488448017754,-0.5281872398107442
24,-0.4677412568120116,0.7478207504882537,0.7075193745888461,-0.5488883764395018
25,-0.44715148579777364,0.7589190199037937,0.7202887681881788,-0.5686380852515274
26,-0.427504904464898,0.7694973865500159,0.7324816668132377,-0.5874800342562331
27,-0.4087589108191012,0.7795818788644876,0.7441222393700444,-0.6054559003983523
28,-0.39087269343398545,0.7891968601853994,0.7552340585589452,-0.6226054574311416
29,-0.3738071861864718,0.7983652085519292,0.7658400147690593,-0.6389666605582827
30,-0.35752501690457716,0.80710846548071,0.7759622589531384,-0.6545757278147638
31,-0.34199045200799527,0.8154469601609545,0.7856221676351371,-0.6694672181976906
32,-0.32716933872939324,0.8233999141089157,0.794840324733308,-0.6836741065881025
33,-0.3130290461219607,0.8309855302286492,0.8036365160738278,-0.6972278555268691
34,-0.29953840576207136,0.83822106937261,0.8120297333984324,-0.7101584839234569
35,-0.2866676528261418,0.845122916829537,0.8200381853924821,-0.7224946327872475
36,-0.27438836804291733,0.8517066406470882,0.827679313822612,-0.7342636280782836
37,-0.26267342088513357,0.8579870432906287,0.8349698133110283,-0.7454915407786836
38,-0.25149691425863785,0.863978207822348,0.8419256536141116,-0.7562032442881873
39,-0.2408341308657731,0.8696935395369579,0.8485621035377888,-0.7664224692479011
40,-0.23066148135752473,0.8751458037963352,0.8548937558278646,-0.7761718558957047
41,-0.22095645434149325,0.8803471606537582,0.8609345525332237,-0.7854730040552806
42,-0.21169756827672104,0.8853091967395548,0.8666978104636851,-0.7943465208585841
43,-0.2028643252593676,0.8900429547868267,0.8721962464602583,-0.8028120662989586
44,-0.1944371666830189,0.8945589611027913,0.8774420022697806,-0.8108883967091757
45,-0.18639743074257287,0.8988672512338027,0.8824466688732333,-0.8185934062555505
46,-0.17872731173994172,0.902977394026852,0.8872213101611887,-0.825944166536029
47,-0.17140982114221703,0.9068985142546239,0.891776485883764,-0.8329569643668313
48,-0.1644287503378672,0.910639313942932,0.8961222738284175,-0.8396473378389229
49,-0.15776863503325056,0.9142080925169266,0.9002682911987081,-0.8460301107222848
50,-0.15141472122991595,0.9176127658646156,0.9042237151821261,-0.8521194252927249
51,-0.1453529327223677,0.9208608844019566,0.9079973027063656,-0.8579287736527957
52,-0.13956984005606898,0.9239596502123052,0.9115974093917973,-0.8634710276153166
53,-0.13405263088603725,0.9269159333237335,0.9150320077140588,-0.8687584672149999
54,-0.128789081677519,0.9297362871801923,0.9183087043951129,-0.8738028079108089
55,-0.12376753069160862,0.9324269633563171,0.9214347570442486,-0.8786152265388876
56,-0.1189768522002943,0.9349939255605827,0.9244170900725903,-0.883206386073232
57,-0.11440643187718602,0.9374428629672621,0.927262309906008,-0.887586459248707
58,-0.11004614331203189,0.9397792029140867,0.9299767195220515,-0.8917651510985447
59,-0.1058863255990603,0.9420081229994731,0.9325663323368167,-0.895751720456102
60,-0.10191776195106783,0.9441345626105884,0.9350368854675981,-0.8995550004684
61,-0.09813165929314005,0.9461632339112828,0.9373938523968851,-0.9031834181667958
62,-0.09451962879175624,0.9480986323169511,0.9396424550627761,-0.9066450131380784
63,-0.09107366727689259,0.9499450464816496,0.9417876754002706,-0.9099474553372986
64,-0.087786139516562,0.9517065678212465,0.9438342663571976,-0.9130980620817564
65,-0.08464976130496726,0.9533870995949967,0.9457867624077734,-0.9161038142637636
66,-0.08165758332716466,0.9549903655666625,0.9476494895859824,-0.9189713718180778
67,-0.07880297576475659,0.9565199182651556,0.9494265750601499,-0.9217070884782567
68,-0.07607961360873738,0.9579791468636122,0.9511219562692537,-0.9243170258546135
69,-0.07348146264710675,0.9593712846948352,0.9527393896406945,-0.9268069668649511
70,-0.07100276609633749,0.9606994164201251,0.9542824589084336,-0.9291824285478261
71,-0.06863803184718908,0.9619664848676732,0.9557545830496118,-0.931448674286723
72,-0.06638202029668339,0.9631752975558954,0.9571590238569877,-0.9336107254722198
73,-0.06422973273933641,0.9643285329163335,0.9584988931637788,-0.9356733726279798
74,-0.06217640029198601,0.9654287462300523,0.9597771597367664,-0.9376411860252161
75,-0.06021747332770766,0.9664783752907897,0.9609966558528169,-0.9395185258091483
76,-0.05834861139543812,0.9674797458074931,0.9621600835733033,-0.9413095516598841
77,-0.056565673602991584,0.9684350765582761,0.9632700207302547,-0.943018232009129
78,-0.05486470944218391,0.9693464843072672,0.9643289266374443,-0.9446483528331484
79,-0.053241950035745056,0.9702159884952832,0.9653391475390264,-0.9462035260414585
80,-0.051693799786634465,0.9710455157147512,0.9663029218077597,-0.9476871974798378
81,-0.050216828411277614,0.9718369039788196,0.9672223849043111,-0.949102654565386
82,-0.048807763339056454,0.9725919067941345,0.9680995741086056,-0.9504530335705514
83,-0.04746348246124499,0.973312197046322,0.968936433033691,-0.951741326572262
84,-0.0461810072132991,0.973999370706794,0.9697348159321063,-0.9529703880815601
85,-0.04495749597520504,0.9746549503691034,0.970496491804285,-0.9541429413684294
86,-0.04379023777523594,0.9752803886226886,0.9712231483180901,-0.9552615844958259
87,-0.04267664628319823,0.9758770712714878,0.9719163955481588,-0.9563287960762862
88,-0.041614254079833435,0.9764463204045614,0.9725777695433371,-0.9573469407638652
89,-0.040600707189697216,0.9769893973255263,0.9732087357301069,-0.9583182744935724
90,-0.03963375986539086,0.977507505347298,0.9738106921595416,-0.9592449494799179
91,-0.03871126961160232,0.9780017924583336,0.9743849726049851,-0.9601290189856392
92,-0.037831192437913774,0.9784733538662845,0.9749328495173131,-0.9609724418711805
93,-0.036991578329878205,0.9789232344246981,0.9754555368443258,-0.9617770869349996
94,-0.036190566928311574,0.9793524309481434,0.9759541927205178,-0.9625447370543235
95,-0.03542638340724413,0.9797618944208942,0.9764299220331816,-0.9632770931355247
96,-0.034697334541381686,0.9801525321040614,0.9768837788705341,-0.963975777882872
97,-0.034001804954379544,0.9805252095458454,0.9773167688572866,-0.9646423393940078
98,-0.03333825353959874,0.9808807524993628,0.9777298513828331,-0.9652782545901157
99,-0.032705210045435695,0.9812199487522969,0.9781239417269971,-0.9658849324883809
